digraph Tree {
node [shape=box] ;
0 [label="X[0] <= 56.5\ngini = 0.0477\nsamples = 1924\nvalue = [1877, 47]"] ;
1 [label="X[0] <= 48.5\ngini = 0.028\nsamples = 1899\nvalue = [1872, 27]"] ;
0 -> 1 [labeldistance=2.5, labelangle=45, headlabel="True"] ;
2 [label="X[0] <= 36.5\ngini = 0.0181\nsamples = 1864\nvalue = [1847, 17]"] ;
1 -> 2 ;
3 [label="X[0] <= 35.5\ngini = 0.1264\nsamples = 118\nvalue = [110, 8]"] ;
2 -> 3 ;
4 [label="X[2] <= 354.0\ngini = 0.072\nsamples = 107\nvalue = [103, 4]"] ;
3 -> 4 ;
5 [label="X[0] <= 23.5\ngini = 0.0282\nsamples = 70\nvalue = [69, 1]"] ;
4 -> 5 ;
6 [label="X[0] <= 22.5\ngini = 0.0907\nsamples = 21\nvalue = [20, 1]"] ;
5 -> 6 ;
7 [label="gini = 0.0\nsamples = 12\nvalue = [12, 0]"] ;
6 -> 7 ;
8 [label="X[2] <= 250.5\ngini = 0.1975\nsamples = 9\nvalue = [8, 1]"] ;
6 -> 8 ;
9 [label="gini = 0.32\nsamples = 5\nvalue = [4, 1]"] ;
8 -> 9 ;
10 [label="gini = 0.0\nsamples = 4\nvalue = [4, 0]"] ;
8 -> 10 ;
11 [label="gini = 0.0\nsamples = 49\nvalue = [49, 0]"] ;
5 -> 11 ;
12 [label="X[0] <= 30.5\ngini = 0.149\nsamples = 37\nvalue = [34, 3]"] ;
4 -> 12 ;
13 [label="gini = 0.0\nsamples = 20\nvalue = [20, 0]"] ;
12 -> 13 ;
14 [label="X[0] <= 33.0\ngini = 0.2907\nsamples = 17\nvalue = [14, 3]"] ;
12 -> 14 ;
15 [label="X[0] <= 31.5\ngini = 0.375\nsamples = 12\nvalue = [9, 3]"] ;
14 -> 15 ;
16 [label="gini = 0.375\nsamples = 8\nvalue = [6, 2]"] ;
15 -> 16 ;
17 [label="gini = 0.375\nsamples = 4\nvalue = [3, 1]"] ;
15 -> 17 ;
18 [label="gini = 0.0\nsamples = 5\nvalue = [5, 0]"] ;
14 -> 18 ;
19 [label="X[2] <= 302.0\ngini = 0.4628\nsamples = 11\nvalue = [7, 4]"] ;
3 -> 19 ;
20 [label="gini = 0.48\nsamples = 10\nvalue = [6, 4]"] ;
19 -> 20 ;
21 [label="gini = 0.0\nsamples = 1\nvalue = [1, 0]"] ;
19 -> 21 ;
22 [label="X[0] <= 45.5\ngini = 0.0103\nsamples = 1746\nvalue = [1737, 9]"] ;
2 -> 22 ;
23 [label="X[0] <= 42.5\ngini = 0.05\nsamples = 234\nvalue = [228, 6]"] ;
22 -> 23 ;
24 [label="X[0] <= 39.5\ngini = 0.0091\nsamples = 218\nvalue = [217, 1]"] ;
23 -> 24 ;
25 [label="gini = 0.0\nsamples = 210\nvalue = [210, 0]"] ;
24 -> 25 ;
26 [label="X[0] <= 40.5\ngini = 0.2188\nsamples = 8\nvalue = [7, 1]"] ;
24 -> 26 ;
27 [label="X[2] <= 302.0\ngini = 0.5\nsamples = 2\nvalue = [1, 1]"] ;
26 -> 27 ;
28 [label="gini = 0.0\nsamples = 1\nvalue = [0, 1]"] ;
27 -> 28 ;
29 [label="gini = 0.0\nsamples = 1\nvalue = [1, 0]"] ;
27 -> 29 ;
30 [label="gini = 0.0\nsamples = 6\nvalue = [6, 0]"] ;
26 -> 30 ;
31 [label="X[2] <= 305.0\ngini = 0.4297\nsamples = 16\nvalue = [11, 5]"] ;
23 -> 31 ;
32 [label="gini = 0.0\nsamples = 9\nvalue = [9, 0]"] ;
31 -> 32 ;
33 [label="X[0] <= 43.5\ngini = 0.4082\nsamples = 7\nvalue = [2, 5]"] ;
31 -> 33 ;
34 [label="gini = 0.0\nsamples = 3\nvalue = [0, 3]"] ;
33 -> 34 ;
35 [label="X[0] <= 44.5\ngini = 0.5\nsamples = 4\nvalue = [2, 2]"] ;
33 -> 35 ;
36 [label="gini = 0.0\nsamples = 1\nvalue = [1, 0]"] ;
35 -> 36 ;
37 [label="gini = 0.4444\nsamples = 3\nvalue = [1, 2]"] ;
35 -> 37 ;
38 [label="X[0] <= 47.5\ngini = 0.004\nsamples = 1512\nvalue = [1509, 3]"] ;
22 -> 38 ;
39 [label="X[2] <= 354.0\ngini = 0.0091\nsamples = 658\nvalue = [655, 3]"] ;
38 -> 39 ;
40 [label="X[2] <= 250.5\ngini = 0.0061\nsamples = 649\nvalue = [647, 2]"] ;
39 -> 40 ;
41 [label="gini = 0.0067\nsamples = 598\nvalue = [596, 2]"] ;
40 -> 41 ;
42 [label="gini = 0.0\nsamples = 51\nvalue = [51, 0]"] ;
40 -> 42 ;
43 [label="X[0] <= 46.5\ngini = 0.1975\nsamples = 9\nvalue = [8, 1]"] ;
39 -> 43 ;
44 [label="gini = 0.0\nsamples = 4\nvalue = [4, 0]"] ;
43 -> 44 ;
45 [label="gini = 0.32\nsamples = 5\nvalue = [4, 1]"] ;
43 -> 45 ;
46 [label="gini = 0.0\nsamples = 854\nvalue = [854, 0]"] ;
38 -> 46 ;
47 [label="X[2] <= 253.5\ngini = 0.4082\nsamples = 35\nvalue = [25, 10]"] ;
1 -> 47 ;
48 [label="X[0] <= 49.5\ngini = 0.2449\nsamples = 14\nvalue = [12, 2]"] ;
47 -> 48 ;
49 [label="X[2] <= 203.0\ngini = 0.4444\nsamples = 6\nvalue = [4, 2]"] ;
48 -> 49 ;
50 [label="gini = 0.48\nsamples = 5\nvalue = [3, 2]"] ;
49 -> 50 ;
51 [label="gini = 0.0\nsamples = 1\nvalue = [1, 0]"] ;
49 -> 51 ;
52 [label="gini = 0.0\nsamples = 8\nvalue = [8, 0]"] ;
48 -> 52 ;
53 [label="X[2] <= 352.5\ngini = 0.4717\nsamples = 21\nvalue = [13, 8]"] ;
47 -> 53 ;
54 [label="gini = 0.0\nsamples = 1\nvalue = [0, 1]"] ;
53 -> 54 ;
55 [label="X[0] <= 53.5\ngini = 0.455\nsamples = 20\nvalue = [13, 7]"] ;
53 -> 55 ;
56 [label="X[0] <= 52.5\ngini = 0.4898\nsamples = 14\nvalue = [8, 6]"] ;
55 -> 56 ;
57 [label="X[0] <= 49.5\ngini = 0.42\nsamples = 10\nvalue = [7, 3]"] ;
56 -> 57 ;
58 [label="gini = 0.5\nsamples = 4\nvalue = [2, 2]"] ;
57 -> 58 ;
59 [label="X[0] <= 50.5\ngini = 0.2778\nsamples = 6\nvalue = [5, 1]"] ;
57 -> 59 ;
60 [label="gini = 0.0\nsamples = 3\nvalue = [3, 0]"] ;
59 -> 60 ;
61 [label="X[0] <= 51.5\ngini = 0.4444\nsamples = 3\nvalue = [2, 1]"] ;
59 -> 61 ;
62 [label="gini = 0.5\nsamples = 2\nvalue = [1, 1]"] ;
61 -> 62 ;
63 [label="gini = 0.0\nsamples = 1\nvalue = [1, 0]"] ;
61 -> 63 ;
64 [label="gini = 0.375\nsamples = 4\nvalue = [1, 3]"] ;
56 -> 64 ;
65 [label="X[0] <= 54.5\ngini = 0.2778\nsamples = 6\nvalue = [5, 1]"] ;
55 -> 65 ;
66 [label="gini = 0.0\nsamples = 4\nvalue = [4, 0]"] ;
65 -> 66 ;
67 [label="X[0] <= 55.5\ngini = 0.5\nsamples = 2\nvalue = [1, 1]"] ;
65 -> 67 ;
68 [label="gini = 0.0\nsamples = 1\nvalue = [0, 1]"] ;
67 -> 68 ;
69 [label="gini = 0.0\nsamples = 1\nvalue = [1, 0]"] ;
67 -> 69 ;
70 [label="X[2] <= 411.0\ngini = 0.32\nsamples = 25\nvalue = [5, 20]"] ;
0 -> 70 [labeldistance=2.5, labelangle=-45, headlabel="False"] ;
71 [label="X[0] <= 67.0\ngini = 0.2449\nsamples = 21\nvalue = [3, 18]"] ;
70 -> 71 ;
72 [label="X[0] <= 65.0\ngini = 0.375\nsamples = 12\nvalue = [3, 9]"] ;
71 -> 72 ;
73 [label="X[0] <= 58.5\ngini = 0.2975\nsamples = 11\nvalue = [2, 9]"] ;
72 -> 73 ;
74 [label="X[0] <= 57.5\ngini = 0.4444\nsamples = 3\nvalue = [1, 2]"] ;
73 -> 74 ;
75 [label="gini = 0.0\nsamples = 1\nvalue = [0, 1]"] ;
74 -> 75 ;
76 [label="gini = 0.5\nsamples = 2\nvalue = [1, 1]"] ;
74 -> 76 ;
77 [label="X[0] <= 61.0\ngini = 0.2188\nsamples = 8\nvalue = [1, 7]"] ;
73 -> 77 ;
78 [label="gini = 0.0\nsamples = 4\nvalue = [0, 4]"] ;
77 -> 78 ;
79 [label="X[0] <= 62.5\ngini = 0.375\nsamples = 4\nvalue = [1, 3]"] ;
77 -> 79 ;
80 [label="gini = 0.5\nsamples = 2\nvalue = [1, 1]"] ;
79 -> 80 ;
81 [label="gini = 0.0\nsamples = 2\nvalue = [0, 2]"] ;
79 -> 81 ;
82 [label="gini = 0.0\nsamples = 1\nvalue = [1, 0]"] ;
72 -> 82 ;
83 [label="gini = 0.0\nsamples = 9\nvalue = [0, 9]"] ;
71 -> 83 ;
84 [label="X[0] <= 109.5\ngini = 0.5\nsamples = 4\nvalue = [2, 2]"] ;
70 -> 84 ;
85 [label="gini = 0.0\nsamples = 1\nvalue = [1, 0]"] ;
84 -> 85 ;
86 [label="X[0] <= 142.0\ngini = 0.4444\nsamples = 3\nvalue = [1, 2]"] ;
84 -> 86 ;
87 [label="gini = 0.0\nsamples = 1\nvalue = [0, 1]"] ;
86 -> 87 ;
88 [label="X[0] <= 174.5\ngini = 0.5\nsamples = 2\nvalue = [1, 1]"] ;
86 -> 88 ;
89 [label="gini = 0.0\nsamples = 1\nvalue = [1, 0]"] ;
88 -> 89 ;
90 [label="gini = 0.0\nsamples = 1\nvalue = [0, 1]"] ;
88 -> 90 ;
}